digraph Tree {
node [shape=box, style="filled, rounded", color="black", fontname="helvetica"] ;
edge [fontname="helvetica"] ;
0 [label=<OverTime &le; 0.347<br/>entropy = 0.64<br/>samples = 1029<br/>value = [862, 167]<br/>class = Yes>, fillcolor="#ea995f"] ;
1 [label=<JobRole_5 &le; 0.621<br/>entropy = 0.491<br/>samples = 747<br/>value = [667, 80]<br/>class = Yes>, fillcolor="#e89051"] ;
0 -> 1 [labeldistance=2.5, labelangle=45, headlabel="True"] ;
2 [label=<Age &le; 37.562<br/>entropy = 0.511<br/>samples = 703<br/>value = [623, 80]<br/>class = Yes>, fillcolor="#e89152"] ;
1 -> 2 ;
3 [label=<NumCompaniesWorked &le; 4.662<br/>entropy = 0.586<br/>samples = 427<br/>value = [367, 60]<br/>class = Yes>, fillcolor="#e99659"] ;
2 -> 3 ;
4 [label=<YearsWithCurrManager &le; 1.91<br/>entropy = 0.498<br/>samples = 357<br/>value = [318, 39]<br/>class = Yes>, fillcolor="#e89051"] ;
3 -> 4 ;
5 [label=<RelationshipSatisfaction &le; 1.594<br/>entropy = 0.829<br/>samples = 88<br/>value = [65, 23]<br/>class = Yes>, fillcolor="#eeae7f"] ;
4 -> 5 ;
6 [label=<StockOptionLevel &le; 0.36<br/>entropy = 0.982<br/>samples = 45<br/>value = [26, 19]<br/>class = Yes>, fillcolor="#f8ddca"] ;
5 -> 6 ;
7 [label=<entropy = 1.0<br/>samples = 24<br/>value = [12, 12]<br/>class = Yes>, fillcolor="#ffffff"] ;
6 -> 7 ;
8 [label=<entropy = 0.918<br/>samples = 21<br/>value = [14, 7]<br/>class = Yes>, fillcolor="#f2c09c"] ;
6 -> 8 ;
9 [label=<Department_2 &le; 0.694<br/>entropy = 0.446<br/>samples = 43<br/>value = [39, 4]<br/>class = Yes>, fillcolor="#e88e4d"] ;
5 -> 9 ;
10 [label=<entropy = 0.0<br/>samples = 26<br/>value = [26, 0]<br/>class = Yes>, fillcolor="#e58139"] ;
9 -> 10 ;
11 [label=<entropy = 0.787<br/>samples = 17<br/>value = [13, 4]<br/>class = Yes>, fillcolor="#eda876"] ;
9 -> 11 ;
12 [label=<MaritalStatus_2 &le; 0.554<br/>entropy = 0.325<br/>samples = 269<br/>value = [253, 16]<br/>class = Yes>, fillcolor="#e78946"] ;
4 -> 12 ;
13 [label=<Department_2 &le; 0.542<br/>entropy = 0.216<br/>samples = 174<br/>value = [168, 6]<br/>class = Yes>, fillcolor="#e68640"] ;
12 -> 13 ;
14 [label=<Education &le; 3.571<br/>entropy = 0.073<br/>samples = 113<br/>value = [112, 1]<br/>class = Yes>, fillcolor="#e5823b"] ;
13 -> 14 ;
15 [label=<entropy = 0.0<br/>samples = 94<br/>value = [94, 0]<br/>class = Yes>, fillcolor="#e58139"] ;
14 -> 15 ;
16 [label=<entropy = 0.297<br/>samples = 19<br/>value = [18, 1]<br/>class = Yes>, fillcolor="#e68844"] ;
14 -> 16 ;
17 [label=<JobSatisfaction &le; 0.182<br/>entropy = 0.409<br/>samples = 61<br/>value = [56, 5]<br/>class = Yes>, fillcolor="#e78c4b"] ;
13 -> 17 ;
18 [label=<entropy = 0.0<br/>samples = 17<br/>value = [17, 0]<br/>class = Yes>, fillcolor="#e58139"] ;
17 -> 18 ;
19 [label=<MonthlyIncome &le; 5757.754<br/>entropy = 0.511<br/>samples = 44<br/>value = [39, 5]<br/>class = Yes>, fillcolor="#e89152"] ;
17 -> 19 ;
20 [label=<entropy = 0.25<br/>samples = 24<br/>value = [23, 1]<br/>class = Yes>, fillcolor="#e68642"] ;
19 -> 20 ;
21 [label=<entropy = 0.722<br/>samples = 20<br/>value = [16, 4]<br/>class = Yes>, fillcolor="#eca06a"] ;
19 -> 21 ;
22 [label=<Department_1 &le; 0.126<br/>entropy = 0.485<br/>samples = 95<br/>value = [85, 10]<br/>class = Yes>, fillcolor="#e89050"] ;
12 -> 22 ;
23 [label=<entropy = 0.0<br/>samples = 30<br/>value = [30, 0]<br/>class = Yes>, fillcolor="#e58139"] ;
22 -> 23 ;
24 [label=<JobSatisfaction &le; 2.87<br/>entropy = 0.619<br/>samples = 65<br/>value = [55, 10]<br/>class = Yes>, fillcolor="#ea985d"] ;
22 -> 24 ;
25 [label=<JobSatisfaction &le; 0.354<br/>entropy = 0.738<br/>samples = 48<br/>value = [38, 10]<br/>class = Yes>, fillcolor="#eca26d"] ;
24 -> 25 ;
26 [label=<entropy = 0.575<br/>samples = 22<br/>value = [19, 3]<br/>class = Yes>, fillcolor="#e99558"] ;
25 -> 26 ;
27 [label=<entropy = 0.84<br/>samples = 26<br/>value = [19, 7]<br/>class = Yes>, fillcolor="#efaf82"] ;
25 -> 27 ;
28 [label=<entropy = 0.0<br/>samples = 17<br/>value = [17, 0]<br/>class = Yes>, fillcolor="#e58139"] ;
24 -> 28 ;
29 [label=<StockOptionLevel &le; 0.516<br/>entropy = 0.881<br/>samples = 70<br/>value = [49, 21]<br/>class = Yes>, fillcolor="#f0b78e"] ;
3 -> 29 ;
30 [label=<Department_2 &le; 0.309<br/>entropy = 0.998<br/>samples = 34<br/>value = [18, 16]<br/>class = Yes>, fillcolor="#fcf1e9"] ;
29 -> 30 ;
31 [label=<entropy = 0.937<br/>samples = 17<br/>value = [11, 6]<br/>class = Yes>, fillcolor="#f3c6a5"] ;
30 -> 31 ;
32 [label=<entropy = 0.977<br/>samples = 17<br/>value = [7, 10]<br/>class = No>, fillcolor="#c4e2f7"] ;
30 -> 32 ;
33 [label=<EducationField_1 &le; 0.271<br/>entropy = 0.581<br/>samples = 36<br/>value = [31, 5]<br/>class = Yes>, fillcolor="#e99559"] ;
29 -> 33 ;
34 [label=<entropy = 0.831<br/>samples = 19<br/>value = [14, 5]<br/>class = Yes>, fillcolor="#eeae80"] ;
33 -> 34 ;
35 [label=<entropy = 0.0<br/>samples = 17<br/>value = [17, 0]<br/>class = Yes>, fillcolor="#e58139"] ;
33 -> 35 ;
36 [label=<JobInvolvement &le; 2.741<br/>entropy = 0.375<br/>samples = 276<br/>value = [256, 20]<br/>class = Yes>, fillcolor="#e78b48"] ;
2 -> 36 ;
37 [label=<HourlyRate &le; 47.908<br/>entropy = 0.398<br/>samples = 254<br/>value = [234, 20]<br/>class = Yes>, fillcolor="#e78c4a"] ;
36 -> 37 ;
38 [label=<JobRole_7 &le; 0.919<br/>entropy = 0.133<br/>samples = 54<br/>value = [53, 1]<br/>class = Yes>, fillcolor="#e5833d"] ;
37 -> 38 ;
39 [label=<entropy = 0.0<br/>samples = 37<br/>value = [37, 0]<br/>class = Yes>, fillcolor="#e58139"] ;
38 -> 39 ;
40 [label=<entropy = 0.323<br/>samples = 17<br/>value = [16, 1]<br/>class = Yes>, fillcolor="#e78945"] ;
38 -> 40 ;
41 [label=<EducationField_5 &le; 0.3<br/>entropy = 0.453<br/>samples = 200<br/>value = [181, 19]<br/>class = Yes>, fillcolor="#e88e4e"] ;
37 -> 41 ;
42 [label=<JobSatisfaction &le; 0.494<br/>entropy = 0.411<br/>samples = 182<br/>value = [167, 15]<br/>class = Yes>, fillcolor="#e78c4b"] ;
41 -> 42 ;
43 [label=<Education &le; 0.643<br/>entropy = 0.129<br/>samples = 56<br/>value = [55, 1]<br/>class = Yes>, fillcolor="#e5833d"] ;
42 -> 43 ;
44 [label=<entropy = 0.276<br/>samples = 21<br/>value = [20, 1]<br/>class = Yes>, fillcolor="#e68743"] ;
43 -> 44 ;
45 [label=<entropy = 0.0<br/>samples = 35<br/>value = [35, 0]<br/>class = Yes>, fillcolor="#e58139"] ;
43 -> 45 ;
46 [label=<EnvironmentSatisfaction &le; 1.211<br/>entropy = 0.503<br/>samples = 126<br/>value = [112, 14]<br/>class = Yes>, fillcolor="#e89152"] ;
42 -> 46 ;
47 [label=<EnvironmentSatisfaction &le; 0.907<br/>entropy = 0.692<br/>samples = 70<br/>value = [57, 13]<br/>class = Yes>, fillcolor="#eb9e66"] ;
46 -> 47 ;
48 [label=<NumCompaniesWorked &le; 3.912<br/>entropy = 0.303<br/>samples = 37<br/>value = [35, 2]<br/>class = Yes>, fillcolor="#e68844"] ;
47 -> 48 ;
49 [label=<entropy = 0.0<br/>samples = 18<br/>value = [18, 0]<br/>class = Yes>, fillcolor="#e58139"] ;
48 -> 49 ;
50 [label=<entropy = 0.485<br/>samples = 19<br/>value = [17, 2]<br/>class = Yes>, fillcolor="#e89050"] ;
48 -> 50 ;
51 [label=<entropy = 0.918<br/>samples = 33<br/>value = [22, 11]<br/>class = Yes>, fillcolor="#f2c09c"] ;
47 -> 51 ;
52 [label=<Gender &le; 0.197<br/>entropy = 0.129<br/>samples = 56<br/>value = [55, 1]<br/>class = Yes>, fillcolor="#e5833d"] ;
46 -> 52 ;
53 [label=<entropy = 0.286<br/>samples = 20<br/>value = [19, 1]<br/>class = Yes>, fillcolor="#e68843"] ;
52 -> 53 ;
54 [label=<entropy = 0.0<br/>samples = 36<br/>value = [36, 0]<br/>class = Yes>, fillcolor="#e58139"] ;
52 -> 54 ;
55 [label=<entropy = 0.764<br/>samples = 18<br/>value = [14, 4]<br/>class = Yes>, fillcolor="#eca572"] ;
41 -> 55 ;
56 [label=<entropy = 0.0<br/>samples = 22<br/>value = [22, 0]<br/>class = Yes>, fillcolor="#e58139"] ;
36 -> 56 ;
57 [label=<entropy = 0.0<br/>samples = 44<br/>value = [44, 0]<br/>class = Yes>, fillcolor="#e58139"] ;
1 -> 57 ;
58 [label=<StockOptionLevel &le; 0.268<br/>entropy = 0.891<br/>samples = 282<br/>value = [195, 87]<br/>class = Yes>, fillcolor="#f1b991"] ;
0 -> 58 [labeldistance=2.5, labelangle=-45, headlabel="False"] ;
59 [label=<EnvironmentSatisfaction &le; 0.423<br/>entropy = 0.998<br/>samples = 119<br/>value = [63, 56]<br/>class = Yes>, fillcolor="#fcf1e9"] ;
58 -> 59 ;
60 [label=<YearsAtCompany &le; 4.56<br/>entropy = 0.878<br/>samples = 37<br/>value = [26, 11]<br/>class = Yes>, fillcolor="#f0b68d"] ;
59 -> 60 ;
61 [label=<entropy = 0.998<br/>samples = 17<br/>value = [9, 8]<br/>class = Yes>, fillcolor="#fcf1e9"] ;
60 -> 61 ;
62 [label=<entropy = 0.61<br/>samples = 20<br/>value = [17, 3]<br/>class = Yes>, fillcolor="#ea975c"] ;
60 -> 62 ;
63 [label=<YearsAtCompany &le; 1.074<br/>entropy = 0.993<br/>samples = 82<br/>value = [37, 45]<br/>class = No>, fillcolor="#dceefa"] ;
59 -> 63 ;
64 [label=<entropy = 0.672<br/>samples = 17<br/>value = [3, 14]<br/>class = No>, fillcolor="#63b2eb"] ;
63 -> 64 ;
65 [label=<JobLevel &le; 1.621<br/>entropy = 0.998<br/>samples = 65<br/>value = [34, 31]<br/>class = Yes>, fillcolor="#fdf4ee"] ;
63 -> 65 ;
66 [label=<entropy = 0.918<br/>samples = 27<br/>value = [9, 18]<br/>class = No>, fillcolor="#9ccef2"] ;
65 -> 66 ;
67 [label=<JobRole_7 &le; 0.873<br/>entropy = 0.927<br/>samples = 38<br/>value = [25, 13]<br/>class = Yes>, fillcolor="#f3c3a0"] ;
65 -> 67 ;
68 [label=<entropy = 0.65<br/>samples = 18<br/>value = [15, 3]<br/>class = Yes>, fillcolor="#ea9a61"] ;
67 -> 68 ;
69 [label=<entropy = 1.0<br/>samples = 20<br/>value = [10, 10]<br/>class = Yes>, fillcolor="#ffffff"] ;
67 -> 69 ;
70 [label=<JobLevel &le; 1.068<br/>entropy = 0.702<br/>samples = 163<br/>value = [132, 31]<br/>class = Yes>, fillcolor="#eb9f68"] ;
58 -> 70 ;
71 [label=<MonthlyIncome &le; 2538.855<br/>entropy = 0.984<br/>samples = 61<br/>value = [35, 26]<br/>class = Yes>, fillcolor="#f8dfcc"] ;
70 -> 71 ;
72 [label=<entropy = 0.954<br/>samples = 24<br/>value = [9, 15]<br/>class = No>, fillcolor="#b0d8f5"] ;
71 -> 72 ;
73 [label=<HourlyRate &le; 58.816<br/>entropy = 0.878<br/>samples = 37<br/>value = [26, 11]<br/>class = Yes>, fillcolor="#f0b68d"] ;
71 -> 73 ;
74 [label=<entropy = 0.991<br/>samples = 18<br/>value = [10, 8]<br/>class = Yes>, fillcolor="#fae6d7"] ;
73 -> 74 ;
75 [label=<entropy = 0.629<br/>samples = 19<br/>value = [16, 3]<br/>class = Yes>, fillcolor="#ea995e"] ;
73 -> 75 ;
76 [label=<DistanceFromHome &le; 10.765<br/>entropy = 0.282<br/>samples = 102<br/>value = [97, 5]<br/>class = Yes>, fillcolor="#e68743"] ;
70 -> 76 ;
77 [label=<entropy = 0.0<br/>samples = 61<br/>value = [61, 0]<br/>class = Yes>, fillcolor="#e58139"] ;
76 -> 77 ;
78 [label=<PercentSalaryHike &le; 14.208<br/>entropy = 0.535<br/>samples = 41<br/>value = [36, 5]<br/>class = Yes>, fillcolor="#e99254"] ;
76 -> 78 ;
79 [label=<entropy = 0.755<br/>samples = 23<br/>value = [18, 5]<br/>class = Yes>, fillcolor="#eca470"] ;
78 -> 79 ;
80 [label=<entropy = 0.0<br/>samples = 18<br/>value = [18, 0]<br/>class = Yes>, fillcolor="#e58139"] ;
78 -> 80 ;
}